4 300
мочь_VERB -0.031208 0.024294 -0.031433 -0.028102 0.037222 0.072109 0.033410 -0.018213 -0.108818 -0.060907 -0.021944 -0.090031 0.029153 -0.008518 0.070985 -0.108511 -0.033032 0.015957 -0.082347 -0.107038 -0.013014 -0.013548 0.018763 -0.011029 0.008093 -0.024506 0.009311 -0.039908 -0.002837 -0.032819 0.014589 0.090382 0.009512 0.097633 -0.117886 0.024100 0.001138 -0.092786 -0.014135 0.032051 -0.021724 0.036613 0.044640 0.099792 -0.000194 0.003439 0.004890 -0.031251 0.088276 -0.056496 -0.028148 0.092568 0.083452 0.051358 -0.061076 -0.088913 0.041691 0.017585 -0.064366 0.031739 -0.107728 0.002428 0.018052 0.035970 -0.094090 -0.092493 0.140122 0.028669 -0.015688 0.038826 -0.081751 0.023328 0.074824 0.024813 -0.058226 0.072918 -0.017737 0.091607 -0.060881 0.035606 -0.039821 0.154302 -0.069999 -0.018459 -0.046258 -0.023855 -0.094403 -0.046723 0.053720 -0.103459 0.054149 -0.060055 -0.005333 0.071900 0.002075 0.015579 -0.063547 0.045631 0.085272 -0.020093 -0.013980 0.003313 -0.004269 0.108919 -0.026448 0.077766 0.099465 -0.023750 -0.014860 -0.073148 0.021957 0.074075 -0.134271 0.088445 0.061873 -0.009602 0.001868 -0.090685 0.031618 -0.086890 0.013249 0.005492 0.029971 0.034379 0.096205 0.008167 0.000543 0.024468 -0.082728 -0.064278 0.015365 0.051049 0.006255 -0.017227 -0.024754 0.061939 0.025258 -0.103347 -0.040247 0.006002 0.036404 -0.002349 -0.024590 -0.093847 0.096597 0.013734 -0.002186 -0.103871 0.007526 0.118506 -0.022479 -0.078974 0.036730 -0.012404 0.002629 -0.096672 -0.030779 -0.064983 0.045891 -0.026962 -0.090225 -0.041348 -0.009516 -0.110168 0.012722 -0.073235 0.041005 0.047059 -0.015992 0.068434 -0.076885 -0.014534 -0.017747 -0.039325 -0.121216 -0.072462 0.060008 -0.027453 0.106764 -0.053025 0.069457 -0.039004 -0.042452 -0.014391 -0.023438 -0.030415 0.026294 0.041380 -0.080660 0.048628 0.089901 -0.069515 0.028941 0.056681 0.091222 0.000429 -0.099290 -0.084655 -0.057637 -0.033307 -0.042751 -0.061003 0.079067 0.052679 0.022407 -0.015633 -0.048475 -0.053136 -0.033541 0.060252 -0.013595 -0.112882 -0.040275 0.022675 -0.020162 0.045104 0.055369 0.064296 -0.011162 0.063497 0.054454 0.037173 -0.008911 0.067651 -0.052523 0.051767 -0.066108 0.026721 -0.011817 0.040590 0.046074 0.049083 0.042768 0.008057 0.032290 0.067018 0.039414 -0.079996 -0.031202 -0.026182 0.059067 0.055278 -0.003517 0.020043 0.043736 0.044873 0.020051 -0.015272 0.054541 0.000209 0.136593 0.018556 0.099922 -0.059689 -0.013388 0.054623 -0.003453 0.022521 0.110392 0.075258 -0.069459 -0.080986 0.019608 -0.061389 -0.059438 0.074045 0.017464 -0.037214 0.018803 0.055608 -0.020175 -0.086454 -0.083129 0.013520 0.026759 -0.003961 -0.015639 0.048827 0.022373 -0.000992 0.051819 0.073243 -0.015495 -0.097123 -0.054938 -0.004821 -0.109182 -0.014885 0.043215 0.008653 0.006873 0.053559 0.111586 -0.078923 0.035657 0.095140 0.052521 -0.088044 0.021708 -0.001099
год_NOUN -0.009059 0.030460 0.001610 -0.012177 0.034042 0.090035 -0.030524 0.002298 -0.027292 0.002591 -0.020886 -0.006685 -0.137905 0.025837 0.037197 -0.072185 0.031201 0.016972 0.003527 -0.072616 -0.033073 -0.056992 0.055532 0.075649 -0.016434 0.001373 0.079326 0.005992 -0.011349 -0.063764 0.039727 -0.014970 -0.022382 0.042250 -0.068450 0.020191 0.067369 -0.032069 0.000318 0.014987 0.034338 0.059302 0.032384 0.017239 -0.015895 -0.014382 -0.072906 -0.085989 0.070222 -0.011198 0.050743 -0.022547 -0.018076 0.060567 -0.059934 -0.013296 0.005235 0.113911 -0.088852 -0.054644 0.040624 0.004465 -0.023715 -0.042508 -0.092044 -0.130448 0.002658 -0.080737 -0.018227 0.032813 0.017633 0.008564 -0.044917 -0.069620 -0.028284 0.029272 -0.042794 -0.010609 0.049785 -0.011675 0.024771 0.140249 -0.092369 0.004647 -0.183853 -0.064254 -0.089080 -0.040477 -0.029202 -0.010302 -0.000616 -0.071905 -0.078747 -0.039627 0.045589 0.005948 -0.029493 -0.031031 0.056992 -0.101072 0.042325 0.032155 -0.058512 0.052824 0.034811 -0.104514 0.074348 -0.029552 -0.048630 -0.075140 0.024461 0.110965 -0.019427 0.015432 0.021258 0.047210 0.066124 0.054584 0.075997 0.064945 0.065076 -0.087742 -0.036784 0.043513 0.063457 -0.009053 0.026288 0.084801 -0.043205 -0.003746 -0.027211 -0.014774 0.011979 0.078686 -0.086551 -0.041954 0.102027 0.053917 0.045960 -0.025169 -0.042148 -0.045979 0.048676 -0.023461 0.046553 0.016297 0.036572 -0.075958 0.020828 -0.022127 -0.013378 -0.050327 0.040578 0.028256 -0.032934 -0.044305 0.043586 0.011985 0.021438 -0.034599 0.026291 0.008010 0.037879 -0.031750 -0.047896 -0.000675 0.037171 0.007990 0.112649 0.048539 -0.012274 0.093604 -0.052578 -0.054973 -0.009153 -0.082923 -0.016062 0.048965 -0.055981 -0.076690 0.050970 -0.030682 0.065777 -0.000799 -0.071576 -0.059227 0.030409 -0.072910 -0.046697 -0.022068 0.015073 -0.048634 -0.039005 0.081297 0.008971 0.070973 0.029081 -0.083578 -0.034093 0.026876 0.078082 -0.053454 -0.014111 0.142360 -0.093660 -0.026853 0.018979 -0.035101 0.014738 -0.027987 -0.010209 -0.078777 0.038597 -0.027412 0.176570 0.024104 -0.042533 -0.113382 0.184908 -0.078273 0.139860 0.003823 -0.015587 -0.062259 -0.123958 0.087888 -0.028127 0.071990 0.040112 0.081672 0.012970 0.030573 0.091129 -0.026207 0.047579 0.010989 -0.036184 0.049462 0.005718 0.133615 0.043612 0.021830 -0.043687 -0.087034 -0.050682 -0.000906 0.010790 -0.098612 0.066651 0.014728 0.025628 0.006123 0.014840 -0.053495 -0.078123 0.035985 0.018088 -0.058234 0.105507 0.001978 -0.017131 -0.083024 -0.016102 0.023928 0.017646 -0.051092 0.062407 -0.012127 -0.021616 -0.044183 -0.013629 -0.033665 0.119062 -0.135944 -0.038240 -0.094208 -0.017355 0.025613 -0.008807 -0.030635 -0.067761 0.029864 -0.116569 -0.081675 0.034296 -0.030927 -0.140411 0.072682 -0.067669 -0.020963 -0.019749 0.007232 -0.062687 -0.016418 0.023496 0.011722 -0.034792 -0.067142 0.090025 0.064685
xx_NUM 0.009177 0.041336 0.003899 -0.027610 -0.034803 0.005836 -0.101860 -0.016560 -0.062649 0.037060 -0.056115 0.008729 -0.052661 -0.004177 -0.060751 -0.009350 -0.083827 0.022019 -0.058053 -0.054830 0.016533 -0.020916 -0.010817 0.115549 0.049823 -0.163614 0.038211 -0.093066 -0.029671 -0.025493 0.014279 0.008007 0.049806 0.070645 0.012390 -0.018640 0.001901 -0.090335 0.048845 0.057394 -0.023761 0.016429 -0.018570 -0.016927 -0.003252 -0.022826 0.000348 -0.154011 0.027153 -0.169617 0.041454 -0.029125 -0.007638 0.065084 -0.053980 -0.162277 0.004108 0.082857 -0.061152 -0.043939 -0.017290 -0.064207 0.048550 -0.060995 -0.043983 -0.042332 0.019549 -0.101728 -0.011738 -0.015774 -0.032396 0.067963 0.039632 -0.032806 -0.041857 -0.011933 -0.029000 0.021959 0.039656 -0.021419 0.014979 -0.000326 0.005228 0.024808 -0.096696 -0.014311 -0.009250 0.024963 -0.011776 -0.051989 0.018439 -0.046020 -0.106209 -0.057425 -0.019277 0.049963 -0.025173 0.000504 -0.018527 -0.010770 -0.028332 -0.061229 -0.049152 0.113309 0.039960 -0.013689 0.015148 0.057622 0.012793 0.053039 0.009055 0.048707 0.037839 0.095671 -0.006040 -0.006117 0.009541 0.020378 0.061838 0.032978 -0.084470 -0.103594 0.035277 0.002915 -0.002178 0.032189 -0.049461 0.030659 -0.003703 0.038470 0.023187 -0.156103 0.012611 0.117401 -0.062757 0.043681 0.184837 -0.013340 0.011627 0.035842 -0.049755 -0.022705 0.060136 -0.036197 -0.089195 -0.091043 0.053511 -0.018899 0.045480 -0.015920 -0.131476 0.018925 0.024520 0.024688 0.003957 0.000622 0.000034 -0.010409 0.138332 0.028554 -0.031610 -0.020985 0.036906 -0.023396 0.037544 0.000415 -0.039455 -0.036151 0.116615 0.038303 -0.026960 0.047757 0.033070 -0.071562 -0.026475 0.021454 -0.022958 -0.008316 0.082354 -0.065038 0.061928 0.011598 -0.009505 0.028290 -0.006773 -0.049012 0.011560 0.065619 -0.016158 0.018251 -0.001411 0.047020 0.030417 0.018665 0.081087 0.108376 -0.010995 -0.064630 0.000216 -0.012168 0.000546 -0.073380 -0.119089 0.011825 -0.099611 -0.079734 -0.010068 0.119476 0.099835 -0.046250 0.042832 -0.174911 0.002060 0.027705 0.086186 0.060935 -0.048214 0.010733 0.088132 0.014939 0.092540 -0.054440 0.024255 -0.058909 -0.023395 -0.021578 0.016312 -0.008053 -0.016130 0.078219 0.077723 0.036186 0.027582 -0.068605 -0.039882 0.083880 -0.051037 0.024137 0.023582 0.092553 0.064386 0.061481 -0.007546 -0.065264 0.124349 0.068159 -0.006964 0.031152 0.026279 -0.019723 0.051160 -0.044020 -0.013755 -0.056427 0.002666 0.052690 -0.011559 -0.070536 0.152831 -0.042199 0.041778 -0.042803 0.050030 -0.016208 -0.106294 0.033085 -0.007305 -0.079177 -0.045622 0.048360 -0.020685 -0.016406 -0.013152 0.011558 -0.037533 -0.025743 -0.048539 0.119460 0.041483 -0.022697 -0.080816 0.083373 -0.135378 -0.087847 -0.007662 0.089662 -0.042352 0.002263 -0.048759 -0.087715 -0.023332 0.113616 0.017990 -0.059154 -0.061739 0.046375 -0.035053 -0.002785 0.090373 0.065631
человек_NOUN -0.061119 0.060100 0.079129 -0.034134 0.113729 0.055199 0.012795 -0.024780 -0.079385 -0.028601 0.107835 -0.088577 -0.020732 -0.061518 0.001886 0.002737 0.069732 0.012925 -0.017119 -0.104945 0.116446 -0.027265 -0.052879 0.043832 -0.033017 -0.075570 0.061086 -0.016217 0.042360 -0.100831 0.179040 -0.020104 -0.032643 0.035188 -0.094999 0.067380 -0.016109 -0.093042 -0.019490 -0.033385 0.028422 -0.038120 -0.018626 -0.026279 0.042571 -0.056945 0.083376 -0.005335 0.097295 -0.057730 -0.068448 0.012003 0.052027 -0.006522 -0.009412 -0.042585 -0.004125 -0.015268 -0.040667 -0.025507 -0.016589 -0.029167 -0.018029 -0.035269 -0.115024 -0.130718 -0.079123 0.020916 -0.048934 0.079304 -0.142351 0.025099 0.000797 -0.042568 -0.023051 0.059070 0.103699 0.037888 0.021589 0.085084 -0.048792 0.033378 -0.014876 0.029482 -0.102766 -0.050282 0.037474 -0.027720 -0.087621 -0.074115 0.039232 0.045108 0.010995 -0.009579 -0.047958 -0.070812 -0.079767 0.060759 0.084662 -0.121229 -0.012631 -0.078763 0.043733 0.145431 0.056542 -0.022195 0.034855 0.015530 0.061988 -0.078990 0.057579 0.103319 -0.066759 0.070123 0.053888 0.045637 0.117415 -0.013177 0.044156 -0.021532 0.001501 0.031528 -0.032099 -0.012268 -0.121722 0.048591 0.039817 0.029962 0.044030 0.021837 0.054326 -0.003446 0.013825 -0.020286 -0.008126 0.022240 -0.028944 0.027004 -0.053673 -0.004162 0.014420 -0.006653 -0.038458 -0.054100 0.052794 0.034121 0.017732 -0.029947 0.010571 -0.057698 0.034898 -0.036298 0.032764 0.029724 -0.038063 0.030947 -0.076235 0.016962 -0.061503 -0.046542 -0.099151 -0.076728 0.048876 -0.027306 0.079572 0.043454 -0.003905 0.047808 -0.080667 -0.021953 -0.012270 -0.020684 -0.023394 -0.009050 -0.081145 0.028248 0.040344 -0.018924 0.017416 -0.088137 0.002338 0.044176 -0.040263 0.028539 -0.023304 0.111013 0.036055 0.047541 -0.058661 0.065444 -0.047848 -0.003995 0.036703 0.067592 0.054213 0.108644 0.082693 -0.079834 -0.047434 -0.000872 -0.010709 0.015758 0.011116 0.030946 -0.060515 -0.023629 0.045607 -0.049544 0.015133 -0.075293 -0.058800 -0.157009 -0.027714 0.023992 -0.016927 0.047436 -0.021797 0.020252 0.002846 0.045764 0.015524 -0.006853 -0.046114 -0.011116 -0.036712 0.043051 -0.012687 0.072296 0.021094 -0.021859 0.130526 -0.059806 0.026824 -0.065623 0.083056 -0.000708 -0.070847 -0.064832 0.008098 0.010099 0.016874 0.091731 -0.030147 0.019141 -0.067961 -0.024133 0.064257 -0.047572 0.021474 -0.005928 0.056685 -0.042438 0.048761 0.057712 -0.064165 -0.029066 -0.028292 -0.001852 0.120575 0.092803 -0.022410 -0.097722 0.086567 0.012741 0.103776 0.060292 -0.016131 0.086202 0.072290 -0.018959 -0.006494 -0.098830 -0.056586 -0.021721 0.169664 -0.058973 -0.096234 0.128591 0.006168 0.003139 0.032859 -0.004256 -0.055414 -0.033615 -0.029245 -0.075137 0.009168 0.087720 -0.103014 -0.022044 0.022471 -0.019545 -0.011007 -0.070787 -0.043965 0.015926 0.016612 -0.023877 0.064577 0.074365
